{
  "layers": [
    {
      "activation": 1,
      "biases": [
        2.062956763404552,
        3.136120377714179,
        2.3395539540866763
      ],
      "cols": 3,
      "rows": 2,
      "weights": [
        [
          -3.2085528199258064,
          0.9032658746972921,
          -4.296642990972089
        ],
        [
          1.9688471635006872,
          0.30488357123528154,
          -2.0315866906386475
        ]
      ]
    },
    {
      "activation": 1,
      "biases": [
        -1.8065642039396055,
        -1.2767065400269713,
        -2.3974282125768447,
        -1.8286255001647616,
        -3.167021952970193,
        -3.425008169031707,
        -2.976559519758872,
        5.8745912299801315,
        -1.5797958814203323,
        -0.010904544277341034,
        -3.0078121026166817,
        -0.2509026183955719,
        -1.3792320916756975,
        0.013803076865397291,
        -3.0264078218512456,
        -2.8258391199535144,
        -3.0404786628177383,
        -3.112185515740109
      ],
      "cols": 18,
      "rows": 3,
      "weights": [
        [
          -0.1258434125718443,
          -2.8287314137697717,
          -1.7636753119755253,
          -2.480326517146142,
          -2.526070337307509,
          -2.3219874855882296,
          -2.346038500245286,
          4.1692050527668245,
          -1.7449732249914156,
          3.7232248153320204e-05,
          -2.0119619546727905,
          0.000856676658182824,
          -2.6698210517704815,
          -4.712893726333274e-05,
          -2.720533270472137,
          -2.479037785783153,
          -2.149981075195897,
          -1.9396815596348118
        ],
        [
          -0.3612730703093397,
          1.0545550788621325,
          -1.760834200060646,
          -1.5068231980642324,
          -2.159179515651101,
          -1.921145524609298,
          -1.9801113216723594,
          4.254508056434909,
          -0.8061271053479516,
          0.011050954768623748,
          -2.1623621504184896,
          0.25427137684059226,
          -0.028106906865393338,
          -0.013988404671280439,
          -2.0598045281854995,
          -2.4518918816154995,
          -2.499040876242264,
          -2.562238305674859
        ],
        [
          -3.7651919068613133,
          -3.191270338551891,
          -1.3972381413840411,
          -1.3790855776793505,
          -1.5612287057474286,
          -2.076113157528536,
          -1.365396809644624,
          3.009566297347629,
          -1.4264195150360148,
          0.0002652444615181019,
          -2.0513209242979493,
          0.006103008820642526,
          -3.669251485539643,
          -0.000335748986600285,
          -1.9830401321931743,
          -1.9393512790890053,
          -1.8338623915833767,
          -1.9128184368013783
        ]
      ]
    }
  ]
}
